11
13
10
1
9
-9
14
10
8
8
-11
0
13
1
11
0
18
8
-11
-13
0
-14
0
11
9
-18
16
6
-13
-7
22
-11
-7
-7
8
10
-17
-18
-16
-6
8
4
13
9
15
4
10
-8
-3
-7
-14
11
12
-11
8
4
2
2
6
-14
-4
-5
-6
-17
11
5
-5
20
4
-2
5
-15
18
-10
11
-6
17
16
0
3
-28
-15
-19
24
7
-18
13
-14
-14
-38
4
-2
4
-15
0
4
12
7
1
1
7
-16
20
-21
-12
6
-3
19
2
-3
7
-9
-1
-6
7
8
3
-1
0
-4
-22
14
-17
49
15
-10
-14
-30
0
-33
1
11
-1
-3
-15
8
-6
18
-5
-5
11
10
4
-2
0
-10
16
18
-5
10
10
-8
-5
-13
-6
9
2
4
10
-11
8
4
-29
17
12
15
-21
-41
-4
9
-4
-2
-6
14
-8
-3
21
18
-11
3
-12
8
8
-22
2
-7
3
14
5
22
-6
1
-8
24
-2
-7
0
10
-2
-2
-28
9
-30
21
2
-17
-15
-15
1
9
1
0
22
-3
-12
2
4
-3
3
13
-8
-16
-13
-5
-12
12
0
-14
-11
-12
-1
0
-11
10
4
-2
0
23
9
6
-8
12
14
-28
-10
-14
7
21
-14
-5
-10
12
17
-28
0
-16
8
41
-9
5
-9
5
20
12
1
-6
8
0
11
9
-7
-5
14
-5
15
7
8
7
-13
7
47
4
14
-30
-8
28
-30
-34
-3
14
-10
3
-3
-8
0
3
-7
-5
-9
-6
-2
-3
4
-9
6
-6
5
-14
9
-4
19
4
-3
2
-14
19
-17
0
-8
-5
15
-12
-7
4
0
5
-20
-7
-8
4
-4
-3
-10
2
4
-4
-7
-16
8
1
27
12
5
-11
14
8
-19
-37
-9
14
18
8
-2
-8
-2
30
0
-1
7
-5
5
-7
-19
11
-5
-6
-1
-12
2
-21
3
-8
10
11
11
-2
12
5
-14
-12
-6
10
-4
-11
-3
-8
9
7
-8
7
16
-7
14
2
-16
-7
1
8
6
-9
5
4
-29
35
-4
8
-19
-31
0
-14
15
14
9
-12
3
19
-9
-12
8
12
-2
1
-9
9
9
14
-2
5
-7
3
13
3
18
-3
-10
9
5
17
-10
-14
2
10
-8
1
4
13
0
-14
-12
-13
-15
0
1
6
0
-20
2
3
2
-4
-3
17
-30
37
7
2
-16
-15
-14
-7
2
-1
-7
-16
-6
-12
-3
9
4
6
-26
14
-10
41
15
4
-17
-7
6
11
18
47
-93
6
-27
-8
-49
62
-11
61
-103
30
9
-38
-11
31
12
-57
-51
14
40
-112
14
56
-8
3
4
-24
55
-22
